digraph Tree {
node [shape=box] ;
0 [label="X[5] <= 0.5\ngini = 0.4562\nsamples = 82\nvalue = [81, 44]"] ;
1 [label="X[14] <= 0.5\ngini = 0.3911\nsamples = 61\nvalue = [66, 24]"] ;
0 -> 1 [labeldistance=2.5, labelangle=45, headlabel="True"] ;
2 [label="X[20] <= 0.5\ngini = 0.437\nsamples = 41\nvalue = [42, 20]"] ;
1 -> 2 ;
3 [label="X[29] <= 0.5\ngini = 0.2945\nsamples = 27\nvalue = [32, 7]"] ;
2 -> 3 ;
4 [label="X[7] <= 0.5\ngini = 0.0997\nsamples = 13\nvalue = [18, 1]"] ;
3 -> 4 ;
5 [label="X[24] <= 0.5\ngini = 0.2778\nsamples = 6\nvalue = [5, 1]"] ;
4 -> 5 ;
6 [label="gini = 0.0\nsamples = 3\nvalue = [3, 0]"] ;
5 -> 6 ;
7 [label="X[10] <= 0.5\ngini = 0.4444\nsamples = 3\nvalue = [2, 1]"] ;
5 -> 7 ;
8 [label="X[11] <= 0.5\ngini = 0.5\nsamples = 2\nvalue = [1, 1]"] ;
7 -> 8 ;
9 [label="gini = 0.0\nsamples = 1\nvalue = [0, 1]"] ;
8 -> 9 ;
10 [label="gini = 0.0\nsamples = 1\nvalue = [1, 0]"] ;
8 -> 10 ;
11 [label="gini = 0.0\nsamples = 1\nvalue = [1, 0]"] ;
7 -> 11 ;
12 [label="gini = 0.0\nsamples = 7\nvalue = [13, 0]"] ;
4 -> 12 ;
13 [label="X[40] <= 0.5\ngini = 0.42\nsamples = 14\nvalue = [14, 6]"] ;
3 -> 13 ;
14 [label="X[16] <= 0.5\ngini = 0.48\nsamples = 6\nvalue = [6, 4]"] ;
13 -> 14 ;
15 [label="X[12] <= 0.5\ngini = 0.4898\nsamples = 4\nvalue = [3, 4]"] ;
14 -> 15 ;
16 [label="gini = 0.0\nsamples = 2\nvalue = [0, 4]"] ;
15 -> 16 ;
17 [label="gini = 0.0\nsamples = 2\nvalue = [3, 0]"] ;
15 -> 17 ;
18 [label="gini = 0.0\nsamples = 2\nvalue = [3, 0]"] ;
14 -> 18 ;
19 [label="X[9] <= 0.5\ngini = 0.32\nsamples = 8\nvalue = [8, 2]"] ;
13 -> 19 ;
20 [label="gini = 0.0\nsamples = 6\nvalue = [8, 0]"] ;
19 -> 20 ;
21 [label="gini = 0.0\nsamples = 2\nvalue = [0, 2]"] ;
19 -> 21 ;
22 [label="X[38] <= 0.5\ngini = 0.4915\nsamples = 14\nvalue = [10, 13]"] ;
2 -> 22 ;
23 [label="X[11] <= 0.5\ngini = 0.4959\nsamples = 13\nvalue = [10, 12]"] ;
22 -> 23 ;
24 [label="X[23] <= 0.5\ngini = 0.4938\nsamples = 11\nvalue = [10, 8]"] ;
23 -> 24 ;
25 [label="X[1] <= 0.5\ngini = 0.4082\nsamples = 4\nvalue = [5, 2]"] ;
24 -> 25 ;
26 [label="X[9] <= 0.5\ngini = 0.32\nsamples = 2\nvalue = [4, 1]"] ;
25 -> 26 ;
27 [label="gini = 0.0\nsamples = 1\nvalue = [4, 0]"] ;
26 -> 27 ;
28 [label="gini = 0.0\nsamples = 1\nvalue = [0, 1]"] ;
26 -> 28 ;
29 [label="X[40] <= 0.5\ngini = 0.5\nsamples = 2\nvalue = [1, 1]"] ;
25 -> 29 ;
30 [label="gini = 0.0\nsamples = 1\nvalue = [1, 0]"] ;
29 -> 30 ;
31 [label="gini = 0.0\nsamples = 1\nvalue = [0, 1]"] ;
29 -> 31 ;
32 [label="X[36] <= 0.5\ngini = 0.4959\nsamples = 7\nvalue = [5, 6]"] ;
24 -> 32 ;
33 [label="X[21] <= 0.5\ngini = 0.4938\nsamples = 6\nvalue = [5, 4]"] ;
32 -> 33 ;
34 [label="X[16] <= 0.5\ngini = 0.4444\nsamples = 4\nvalue = [2, 4]"] ;
33 -> 34 ;
35 [label="X[33] <= 0.5\ngini = 0.4444\nsamples = 2\nvalue = [2, 1]"] ;
34 -> 35 ;
36 [label="gini = 0.0\nsamples = 1\nvalue = [2, 0]"] ;
35 -> 36 ;
37 [label="gini = 0.0\nsamples = 1\nvalue = [0, 1]"] ;
35 -> 37 ;
38 [label="gini = 0.0\nsamples = 2\nvalue = [0, 3]"] ;
34 -> 38 ;
39 [label="gini = 0.0\nsamples = 2\nvalue = [3, 0]"] ;
33 -> 39 ;
40 [label="gini = 0.0\nsamples = 1\nvalue = [0, 2]"] ;
32 -> 40 ;
41 [label="gini = 0.0\nsamples = 2\nvalue = [0, 4]"] ;
23 -> 41 ;
42 [label="gini = 0.0\nsamples = 1\nvalue = [0, 1]"] ;
22 -> 42 ;
43 [label="X[21] <= 0.5\ngini = 0.2449\nsamples = 20\nvalue = [24, 4]"] ;
1 -> 43 ;
44 [label="gini = 0.0\nsamples = 7\nvalue = [8, 0]"] ;
43 -> 44 ;
45 [label="X[39] <= 0.5\ngini = 0.32\nsamples = 13\nvalue = [16, 4]"] ;
43 -> 45 ;
46 [label="X[8] <= 0.5\ngini = 0.2604\nsamples = 8\nvalue = [11, 2]"] ;
45 -> 46 ;
47 [label="gini = 0.0\nsamples = 6\nvalue = [10, 0]"] ;
46 -> 47 ;
48 [label="X[23] <= 0.5\ngini = 0.4444\nsamples = 2\nvalue = [1, 2]"] ;
46 -> 48 ;
49 [label="gini = 0.0\nsamples = 1\nvalue = [0, 2]"] ;
48 -> 49 ;
50 [label="gini = 0.0\nsamples = 1\nvalue = [1, 0]"] ;
48 -> 50 ;
51 [label="X[6] <= 0.5\ngini = 0.4082\nsamples = 5\nvalue = [5, 2]"] ;
45 -> 51 ;
52 [label="X[3] <= 0.5\ngini = 0.4444\nsamples = 4\nvalue = [4, 2]"] ;
51 -> 52 ;
53 [label="X[40] <= 0.5\ngini = 0.4444\nsamples = 2\nvalue = [1, 2]"] ;
52 -> 53 ;
54 [label="gini = 0.0\nsamples = 1\nvalue = [0, 2]"] ;
53 -> 54 ;
55 [label="gini = 0.0\nsamples = 1\nvalue = [1, 0]"] ;
53 -> 55 ;
56 [label="gini = 0.0\nsamples = 2\nvalue = [3, 0]"] ;
52 -> 56 ;
57 [label="gini = 0.0\nsamples = 1\nvalue = [1, 0]"] ;
51 -> 57 ;
58 [label="X[11] <= 0.5\ngini = 0.4898\nsamples = 21\nvalue = [15, 20]"] ;
0 -> 58 [labeldistance=2.5, labelangle=-45, headlabel="False"] ;
59 [label="X[9] <= 0.5\ngini = 0.3047\nsamples = 9\nvalue = [3, 13]"] ;
58 -> 59 ;
60 [label="gini = 0.0\nsamples = 2\nvalue = [3, 0]"] ;
59 -> 60 ;
61 [label="gini = 0.0\nsamples = 7\nvalue = [0, 13]"] ;
59 -> 61 ;
62 [label="X[20] <= 0.5\ngini = 0.4654\nsamples = 12\nvalue = [12, 7]"] ;
58 -> 62 ;
63 [label="X[13] <= 0.5\ngini = 0.4844\nsamples = 10\nvalue = [10, 7]"] ;
62 -> 63 ;
64 [label="X[41] <= 0.5\ngini = 0.2778\nsamples = 7\nvalue = [10, 2]"] ;
63 -> 64 ;
65 [label="gini = 0.0\nsamples = 5\nvalue = [7, 0]"] ;
64 -> 65 ;
66 [label="X[29] <= 0.5\ngini = 0.48\nsamples = 2\nvalue = [3, 2]"] ;
64 -> 66 ;
67 [label="gini = 0.0\nsamples = 1\nvalue = [3, 0]"] ;
66 -> 67 ;
68 [label="gini = 0.0\nsamples = 1\nvalue = [0, 2]"] ;
66 -> 68 ;
69 [label="gini = 0.0\nsamples = 3\nvalue = [0, 5]"] ;
63 -> 69 ;
70 [label="gini = 0.0\nsamples = 2\nvalue = [2, 0]"] ;
62 -> 70 ;
}