digraph Tree {
node [shape=box] ;
0 [label="X[6] <= 0.5\ngini = 0.4293\nsamples = 76\nvalue = [86, 39]"] ;
1 [label="X[29] <= 0.5\ngini = 0.399\nsamples = 65\nvalue = [79, 30]"] ;
0 -> 1 [labeldistance=2.5, labelangle=45, headlabel="True"] ;
2 [label="X[5] <= 0.5\ngini = 0.2999\nsamples = 28\nvalue = [40, 9]"] ;
1 -> 2 ;
3 [label="X[21] <= 0.5\ngini = 0.1609\nsamples = 20\nvalue = [31, 3]"] ;
2 -> 3 ;
4 [label="X[33] <= 0.5\ngini = 0.3967\nsamples = 6\nvalue = [8, 3]"] ;
3 -> 4 ;
5 [label="gini = 0.0\nsamples = 4\nvalue = [6, 0]"] ;
4 -> 5 ;
6 [label="X[39] <= 0.5\ngini = 0.48\nsamples = 2\nvalue = [2, 3]"] ;
4 -> 6 ;
7 [label="gini = 0.0\nsamples = 1\nvalue = [0, 3]"] ;
6 -> 7 ;
8 [label="gini = 0.0\nsamples = 1\nvalue = [2, 0]"] ;
6 -> 8 ;
9 [label="gini = 0.0\nsamples = 14\nvalue = [23, 0]"] ;
3 -> 9 ;
10 [label="X[9] <= 0.5\ngini = 0.48\nsamples = 8\nvalue = [9, 6]"] ;
2 -> 10 ;
11 [label="gini = 0.0\nsamples = 5\nvalue = [9, 0]"] ;
10 -> 11 ;
12 [label="gini = 0.0\nsamples = 3\nvalue = [0, 6]"] ;
10 -> 12 ;
13 [label="X[36] <= 0.5\ngini = 0.455\nsamples = 37\nvalue = [39, 21]"] ;
1 -> 13 ;
14 [label="X[9] <= 0.5\ngini = 0.4405\nsamples = 36\nvalue = [39, 19]"] ;
13 -> 14 ;
15 [label="X[19] <= 0.5\ngini = 0.3141\nsamples = 26\nvalue = [33, 8]"] ;
14 -> 15 ;
16 [label="gini = 0.0\nsamples = 6\nvalue = [11, 0]"] ;
15 -> 16 ;
17 [label="X[18] <= 0.5\ngini = 0.3911\nsamples = 20\nvalue = [22, 8]"] ;
15 -> 17 ;
18 [label="X[7] <= 0.5\ngini = 0.417\nsamples = 18\nvalue = [19, 8]"] ;
17 -> 18 ;
19 [label="X[37] <= 0.5\ngini = 0.497\nsamples = 10\nvalue = [6, 7]"] ;
18 -> 19 ;
20 [label="X[40] <= 0.5\ngini = 0.4628\nsamples = 8\nvalue = [4, 7]"] ;
19 -> 20 ;
21 [label="gini = 0.0\nsamples = 2\nvalue = [0, 3]"] ;
20 -> 21 ;
22 [label="X[1] <= 0.5\ngini = 0.5\nsamples = 6\nvalue = [4, 4]"] ;
20 -> 22 ;
23 [label="X[39] <= 0.5\ngini = 0.4444\nsamples = 5\nvalue = [2, 4]"] ;
22 -> 23 ;
24 [label="X[5] <= 0.5\ngini = 0.5\nsamples = 2\nvalue = [1, 1]"] ;
23 -> 24 ;
25 [label="gini = 0.0\nsamples = 1\nvalue = [0, 1]"] ;
24 -> 25 ;
26 [label="gini = 0.0\nsamples = 1\nvalue = [1, 0]"] ;
24 -> 26 ;
27 [label="X[8] <= 0.5\ngini = 0.375\nsamples = 3\nvalue = [1, 3]"] ;
23 -> 27 ;
28 [label="gini = 0.0\nsamples = 1\nvalue = [1, 0]"] ;
27 -> 28 ;
29 [label="gini = 0.0\nsamples = 2\nvalue = [0, 3]"] ;
27 -> 29 ;
30 [label="gini = 0.0\nsamples = 1\nvalue = [2, 0]"] ;
22 -> 30 ;
31 [label="gini = 0.0\nsamples = 2\nvalue = [2, 0]"] ;
19 -> 31 ;
32 [label="X[12] <= 0.5\ngini = 0.1327\nsamples = 8\nvalue = [13, 1]"] ;
18 -> 32 ;
33 [label="X[16] <= 0.5\ngini = 0.1653\nsamples = 6\nvalue = [10, 1]"] ;
32 -> 33 ;
34 [label="X[3] <= 0.5\ngini = 0.32\nsamples = 3\nvalue = [4, 1]"] ;
33 -> 34 ;
35 [label="X[13] <= 0.5\ngini = 0.375\nsamples = 2\nvalue = [3, 1]"] ;
34 -> 35 ;
36 [label="gini = 0.0\nsamples = 1\nvalue = [3, 0]"] ;
35 -> 36 ;
37 [label="gini = 0.0\nsamples = 1\nvalue = [0, 1]"] ;
35 -> 37 ;
38 [label="gini = 0.0\nsamples = 1\nvalue = [1, 0]"] ;
34 -> 38 ;
39 [label="gini = 0.0\nsamples = 3\nvalue = [6, 0]"] ;
33 -> 39 ;
40 [label="gini = 0.0\nsamples = 2\nvalue = [3, 0]"] ;
32 -> 40 ;
41 [label="gini = 0.0\nsamples = 2\nvalue = [3, 0]"] ;
17 -> 41 ;
42 [label="X[20] <= 0.5\ngini = 0.4567\nsamples = 10\nvalue = [6, 11]"] ;
14 -> 42 ;
43 [label="X[5] <= 0.5\ngini = 0.375\nsamples = 6\nvalue = [6, 2]"] ;
42 -> 43 ;
44 [label="X[4] <= 0.5\ngini = 0.48\nsamples = 4\nvalue = [3, 2]"] ;
43 -> 44 ;
45 [label="gini = 0.0\nsamples = 2\nvalue = [3, 0]"] ;
44 -> 45 ;
46 [label="gini = 0.0\nsamples = 2\nvalue = [0, 2]"] ;
44 -> 46 ;
47 [label="gini = 0.0\nsamples = 2\nvalue = [3, 0]"] ;
43 -> 47 ;
48 [label="gini = 0.0\nsamples = 4\nvalue = [0, 9]"] ;
42 -> 48 ;
49 [label="gini = 0.0\nsamples = 1\nvalue = [0, 2]"] ;
13 -> 49 ;
50 [label="X[39] <= 0.5\ngini = 0.4922\nsamples = 11\nvalue = [7, 9]"] ;
0 -> 50 [labeldistance=2.5, labelangle=-45, headlabel="False"] ;
51 [label="X[30] <= 0.5\ngini = 0.4688\nsamples = 5\nvalue = [5, 3]"] ;
50 -> 51 ;
52 [label="X[22] <= 0.5\ngini = 0.4082\nsamples = 4\nvalue = [5, 2]"] ;
51 -> 52 ;
53 [label="X[9] <= 0.5\ngini = 0.4444\nsamples = 2\nvalue = [1, 2]"] ;
52 -> 53 ;
54 [label="gini = 0.0\nsamples = 1\nvalue = [1, 0]"] ;
53 -> 54 ;
55 [label="gini = 0.0\nsamples = 1\nvalue = [0, 2]"] ;
53 -> 55 ;
56 [label="gini = 0.0\nsamples = 2\nvalue = [4, 0]"] ;
52 -> 56 ;
57 [label="gini = 0.0\nsamples = 1\nvalue = [0, 1]"] ;
51 -> 57 ;
58 [label="X[14] <= 0.5\ngini = 0.375\nsamples = 6\nvalue = [2, 6]"] ;
50 -> 58 ;
59 [label="gini = 0.0\nsamples = 3\nvalue = [0, 5]"] ;
58 -> 59 ;
60 [label="X[12] <= 0.5\ngini = 0.4444\nsamples = 3\nvalue = [2, 1]"] ;
58 -> 60 ;
61 [label="gini = 0.0\nsamples = 2\nvalue = [2, 0]"] ;
60 -> 61 ;
62 [label="gini = 0.0\nsamples = 1\nvalue = [0, 1]"] ;
60 -> 62 ;
}