digraph Tree {
node [shape=box] ;
0 [label="X[20] <= 0.5\ngini = 0.4352\nsamples = 82\nvalue = [85, 40]"] ;
1 [label="X[30] <= 0.5\ngini = 0.2989\nsamples = 59\nvalue = [67, 15]"] ;
0 -> 1 [labeldistance=2.5, labelangle=45, headlabel="True"] ;
2 [label="X[38] <= 0.5\ngini = 0.3475\nsamples = 48\nvalue = [52, 15]"] ;
1 -> 2 ;
3 [label="X[6] <= 0.5\ngini = 0.4002\nsamples = 34\nvalue = [34, 13]"] ;
2 -> 3 ;
4 [label="X[2] <= 0.5\ngini = 0.426\nsamples = 28\nvalue = [27, 12]"] ;
3 -> 4 ;
5 [label="X[22] <= 0.5\ngini = 0.4938\nsamples = 20\nvalue = [15, 12]"] ;
4 -> 5 ;
6 [label="X[39] <= 0.5\ngini = 0.4592\nsamples = 12\nvalue = [9, 5]"] ;
5 -> 6 ;
7 [label="gini = 0.0\nsamples = 2\nvalue = [0, 2]"] ;
6 -> 7 ;
8 [label="X[11] <= 0.5\ngini = 0.375\nsamples = 10\nvalue = [9, 3]"] ;
6 -> 8 ;
9 [label="gini = 0.0\nsamples = 2\nvalue = [3, 0]"] ;
8 -> 9 ;
10 [label="X[41] <= 0.5\ngini = 0.4444\nsamples = 8\nvalue = [6, 3]"] ;
8 -> 10 ;
11 [label="X[29] <= 0.5\ngini = 0.375\nsamples = 4\nvalue = [3, 1]"] ;
10 -> 11 ;
12 [label="gini = 0.0\nsamples = 1\nvalue = [0, 1]"] ;
11 -> 12 ;
13 [label="gini = 0.0\nsamples = 3\nvalue = [3, 0]"] ;
11 -> 13 ;
14 [label="X[7] <= 0.5\ngini = 0.48\nsamples = 4\nvalue = [3, 2]"] ;
10 -> 14 ;
15 [label="gini = 0.0\nsamples = 1\nvalue = [0, 2]"] ;
14 -> 15 ;
16 [label="gini = 0.0\nsamples = 3\nvalue = [3, 0]"] ;
14 -> 16 ;
17 [label="X[37] <= 0.5\ngini = 0.497\nsamples = 8\nvalue = [6, 7]"] ;
5 -> 17 ;
18 [label="X[14] <= 0.5\ngini = 0.4628\nsamples = 7\nvalue = [4, 7]"] ;
17 -> 18 ;
19 [label="X[17] <= 0.5\ngini = 0.2188\nsamples = 6\nvalue = [1, 7]"] ;
18 -> 19 ;
20 [label="X[3] <= 0.5\ngini = 0.4444\nsamples = 2\nvalue = [1, 2]"] ;
19 -> 20 ;
21 [label="gini = 0.0\nsamples = 1\nvalue = [0, 2]"] ;
20 -> 21 ;
22 [label="gini = 0.0\nsamples = 1\nvalue = [1, 0]"] ;
20 -> 22 ;
23 [label="gini = 0.0\nsamples = 4\nvalue = [0, 5]"] ;
19 -> 23 ;
24 [label="gini = 0.0\nsamples = 1\nvalue = [3, 0]"] ;
18 -> 24 ;
25 [label="gini = 0.0\nsamples = 1\nvalue = [2, 0]"] ;
17 -> 25 ;
26 [label="gini = 0.0\nsamples = 8\nvalue = [12, 0]"] ;
4 -> 26 ;
27 [label="X[21] <= 0.5\ngini = 0.2188\nsamples = 6\nvalue = [7, 1]"] ;
3 -> 27 ;
28 [label="X[14] <= 0.5\ngini = 0.4444\nsamples = 3\nvalue = [2, 1]"] ;
27 -> 28 ;
29 [label="gini = 0.0\nsamples = 1\nvalue = [0, 1]"] ;
28 -> 29 ;
30 [label="gini = 0.0\nsamples = 2\nvalue = [2, 0]"] ;
28 -> 30 ;
31 [label="gini = 0.0\nsamples = 3\nvalue = [5, 0]"] ;
27 -> 31 ;
32 [label="X[40] <= 0.5\ngini = 0.18\nsamples = 14\nvalue = [18, 2]"] ;
2 -> 32 ;
33 [label="X[22] <= 0.5\ngini = 0.1172\nsamples = 10\nvalue = [15, 1]"] ;
32 -> 33 ;
34 [label="gini = 0.0\nsamples = 6\nvalue = [11, 0]"] ;
33 -> 34 ;
35 [label="X[12] <= 0.5\ngini = 0.32\nsamples = 4\nvalue = [4, 1]"] ;
33 -> 35 ;
36 [label="X[13] <= 0.5\ngini = 0.375\nsamples = 3\nvalue = [3, 1]"] ;
35 -> 36 ;
37 [label="gini = 0.0\nsamples = 2\nvalue = [3, 0]"] ;
36 -> 37 ;
38 [label="gini = 0.0\nsamples = 1\nvalue = [0, 1]"] ;
36 -> 38 ;
39 [label="gini = 0.0\nsamples = 1\nvalue = [1, 0]"] ;
35 -> 39 ;
40 [label="X[14] <= 0.5\ngini = 0.375\nsamples = 4\nvalue = [3, 1]"] ;
32 -> 40 ;
41 [label="gini = 0.0\nsamples = 2\nvalue = [2, 0]"] ;
40 -> 41 ;
42 [label="X[29] <= 0.5\ngini = 0.5\nsamples = 2\nvalue = [1, 1]"] ;
40 -> 42 ;
43 [label="gini = 0.0\nsamples = 1\nvalue = [1, 0]"] ;
42 -> 43 ;
44 [label="gini = 0.0\nsamples = 1\nvalue = [0, 1]"] ;
42 -> 44 ;
45 [label="gini = 0.0\nsamples = 11\nvalue = [15, 0]"] ;
1 -> 45 ;
46 [label="X[8] <= 0.5\ngini = 0.4867\nsamples = 23\nvalue = [18, 25]"] ;
0 -> 46 [labeldistance=2.5, labelangle=-45, headlabel="False"] ;
47 [label="X[37] <= 0.5\ngini = 0.4362\nsamples = 14\nvalue = [9, 19]"] ;
46 -> 47 ;
48 [label="X[38] <= 0.5\ngini = 0.1975\nsamples = 9\nvalue = [2, 16]"] ;
47 -> 48 ;
49 [label="gini = 0.0\nsamples = 8\nvalue = [0, 16]"] ;
48 -> 49 ;
50 [label="gini = 0.0\nsamples = 1\nvalue = [2, 0]"] ;
48 -> 50 ;
51 [label="X[40] <= 0.5\ngini = 0.42\nsamples = 5\nvalue = [7, 3]"] ;
47 -> 51 ;
52 [label="gini = 0.0\nsamples = 2\nvalue = [0, 3]"] ;
51 -> 52 ;
53 [label="gini = 0.0\nsamples = 3\nvalue = [7, 0]"] ;
51 -> 53 ;
54 [label="X[6] <= 0.5\ngini = 0.48\nsamples = 9\nvalue = [9, 6]"] ;
46 -> 54 ;
55 [label="X[29] <= 0.5\ngini = 0.426\nsamples = 8\nvalue = [9, 4]"] ;
54 -> 55 ;
56 [label="gini = 0.0\nsamples = 3\nvalue = [5, 0]"] ;
55 -> 56 ;
57 [label="X[12] <= 0.5\ngini = 0.5\nsamples = 5\nvalue = [4, 4]"] ;
55 -> 57 ;
58 [label="gini = 0.0\nsamples = 1\nvalue = [2, 0]"] ;
57 -> 58 ;
59 [label="X[41] <= 0.5\ngini = 0.4444\nsamples = 4\nvalue = [2, 4]"] ;
57 -> 59 ;
60 [label="gini = 0.0\nsamples = 1\nvalue = [1, 0]"] ;
59 -> 60 ;
61 [label="X[17] <= 0.5\ngini = 0.32\nsamples = 3\nvalue = [1, 4]"] ;
59 -> 61 ;
62 [label="gini = 0.0\nsamples = 1\nvalue = [1, 0]"] ;
61 -> 62 ;
63 [label="gini = 0.0\nsamples = 2\nvalue = [0, 4]"] ;
61 -> 63 ;
64 [label="gini = 0.0\nsamples = 1\nvalue = [0, 2]"] ;
54 -> 64 ;
}