digraph Tree {
node [shape=box] ;
0 [label="X[19] <= 0.5\ngini = 0.4408\nsamples = 84\nvalue = [84, 41]"] ;
1 [label="X[24] <= 0.5\ngini = 0.4688\nsamples = 27\nvalue = [15, 25]"] ;
0 -> 1 [labeldistance=2.5, labelangle=45, headlabel="True"] ;
2 [label="X[5] <= 0.5\ngini = 0.495\nsamples = 15\nvalue = [11, 9]"] ;
1 -> 2 ;
3 [label="X[30] <= 0.5\ngini = 0.4753\nsamples = 14\nvalue = [11, 7]"] ;
2 -> 3 ;
4 [label="X[12] <= 0.5\ngini = 0.3367\nsamples = 12\nvalue = [11, 3]"] ;
3 -> 4 ;
5 [label="gini = 0.0\nsamples = 2\nvalue = [3, 0]"] ;
4 -> 5 ;
6 [label="X[22] <= 0.5\ngini = 0.3967\nsamples = 10\nvalue = [8, 3]"] ;
4 -> 6 ;
7 [label="gini = 0.0\nsamples = 4\nvalue = [5, 0]"] ;
6 -> 7 ;
8 [label="X[36] <= 0.5\ngini = 0.5\nsamples = 6\nvalue = [3, 3]"] ;
6 -> 8 ;
9 [label="X[8] <= 0.5\ngini = 0.48\nsamples = 5\nvalue = [3, 2]"] ;
8 -> 9 ;
10 [label="gini = 0.0\nsamples = 2\nvalue = [2, 0]"] ;
9 -> 10 ;
11 [label="X[40] <= 0.5\ngini = 0.4444\nsamples = 3\nvalue = [1, 2]"] ;
9 -> 11 ;
12 [label="gini = 0.0\nsamples = 2\nvalue = [0, 2]"] ;
11 -> 12 ;
13 [label="gini = 0.0\nsamples = 1\nvalue = [1, 0]"] ;
11 -> 13 ;
14 [label="gini = 0.0\nsamples = 1\nvalue = [0, 1]"] ;
8 -> 14 ;
15 [label="gini = 0.0\nsamples = 2\nvalue = [0, 4]"] ;
3 -> 15 ;
16 [label="gini = 0.0\nsamples = 1\nvalue = [0, 2]"] ;
2 -> 16 ;
17 [label="X[14] <= 0.5\ngini = 0.32\nsamples = 12\nvalue = [4, 16]"] ;
1 -> 17 ;
18 [label="X[16] <= 0.5\ngini = 0.142\nsamples = 8\nvalue = [1, 12]"] ;
17 -> 18 ;
19 [label="X[9] <= 0.5\ngini = 0.5\nsamples = 2\nvalue = [1, 1]"] ;
18 -> 19 ;
20 [label="gini = 0.0\nsamples = 1\nvalue = [1, 0]"] ;
19 -> 20 ;
21 [label="gini = 0.0\nsamples = 1\nvalue = [0, 1]"] ;
19 -> 21 ;
22 [label="gini = 0.0\nsamples = 6\nvalue = [0, 11]"] ;
18 -> 22 ;
23 [label="X[3] <= 0.5\ngini = 0.4898\nsamples = 4\nvalue = [3, 4]"] ;
17 -> 23 ;
24 [label="X[39] <= 0.5\ngini = 0.32\nsamples = 3\nvalue = [1, 4]"] ;
23 -> 24 ;
25 [label="gini = 0.0\nsamples = 1\nvalue = [1, 0]"] ;
24 -> 25 ;
26 [label="gini = 0.0\nsamples = 2\nvalue = [0, 4]"] ;
24 -> 26 ;
27 [label="gini = 0.0\nsamples = 1\nvalue = [2, 0]"] ;
23 -> 27 ;
28 [label="X[32] <= 0.5\ngini = 0.3056\nsamples = 57\nvalue = [69, 16]"] ;
0 -> 28 [labeldistance=2.5, labelangle=-45, headlabel="False"] ;
29 [label="X[43] <= 0.5\ngini = 0.2916\nsamples = 54\nvalue = [65, 14]"] ;
28 -> 29 ;
30 [label="X[4] <= 0.5\ngini = 0.2631\nsamples = 53\nvalue = [65, 12]"] ;
29 -> 30 ;
31 [label="X[16] <= 0.5\ngini = 0.213\nsamples = 44\nvalue = [58, 8]"] ;
30 -> 31 ;
32 [label="X[30] <= 0.5\ngini = 0.1372\nsamples = 35\nvalue = [50, 4]"] ;
31 -> 32 ;
33 [label="X[2] <= 0.5\ngini = 0.18\nsamples = 25\nvalue = [36, 4]"] ;
32 -> 33 ;
34 [label="X[10] <= 0.5\ngini = 0.1172\nsamples = 18\nvalue = [30, 2]"] ;
33 -> 34 ;
35 [label="X[13] <= 0.5\ngini = 0.1284\nsamples = 17\nvalue = [27, 2]"] ;
34 -> 35 ;
36 [label="gini = 0.0\nsamples = 9\nvalue = [15, 0]"] ;
35 -> 36 ;
37 [label="X[21] <= 0.5\ngini = 0.2449\nsamples = 8\nvalue = [12, 2]"] ;
35 -> 37 ;
38 [label="X[3] <= 0.5\ngini = 0.18\nsamples = 5\nvalue = [9, 1]"] ;
37 -> 38 ;
39 [label="X[7] <= 0.5\ngini = 0.375\nsamples = 2\nvalue = [3, 1]"] ;
38 -> 39 ;
40 [label="gini = 0.0\nsamples = 1\nvalue = [3, 0]"] ;
39 -> 40 ;
41 [label="gini = 0.0\nsamples = 1\nvalue = [0, 1]"] ;
39 -> 41 ;
42 [label="gini = 0.0\nsamples = 3\nvalue = [6, 0]"] ;
38 -> 42 ;
43 [label="X[8] <= 0.5\ngini = 0.375\nsamples = 3\nvalue = [3, 1]"] ;
37 -> 43 ;
44 [label="gini = 0.0\nsamples = 1\nvalue = [2, 0]"] ;
43 -> 44 ;
45 [label="X[5] <= 0.5\ngini = 0.5\nsamples = 2\nvalue = [1, 1]"] ;
43 -> 45 ;
46 [label="gini = 0.0\nsamples = 1\nvalue = [1, 0]"] ;
45 -> 46 ;
47 [label="gini = 0.0\nsamples = 1\nvalue = [0, 1]"] ;
45 -> 47 ;
48 [label="gini = 0.0\nsamples = 1\nvalue = [3, 0]"] ;
34 -> 48 ;
49 [label="X[8] <= 0.5\ngini = 0.375\nsamples = 7\nvalue = [6, 2]"] ;
33 -> 49 ;
50 [label="gini = 0.0\nsamples = 4\nvalue = [5, 0]"] ;
49 -> 50 ;
51 [label="X[13] <= 0.5\ngini = 0.4444\nsamples = 3\nvalue = [1, 2]"] ;
49 -> 51 ;
52 [label="X[23] <= 0.5\ngini = 0.5\nsamples = 2\nvalue = [1, 1]"] ;
51 -> 52 ;
53 [label="gini = 0.0\nsamples = 1\nvalue = [0, 1]"] ;
52 -> 53 ;
54 [label="gini = 0.0\nsamples = 1\nvalue = [1, 0]"] ;
52 -> 54 ;
55 [label="gini = 0.0\nsamples = 1\nvalue = [0, 1]"] ;
51 -> 55 ;
56 [label="gini = 0.0\nsamples = 10\nvalue = [14, 0]"] ;
32 -> 56 ;
57 [label="X[2] <= 0.5\ngini = 0.4444\nsamples = 9\nvalue = [8, 4]"] ;
31 -> 57 ;
58 [label="X[39] <= 0.5\ngini = 0.5\nsamples = 6\nvalue = [4, 4]"] ;
57 -> 58 ;
59 [label="gini = 0.0\nsamples = 3\nvalue = [3, 0]"] ;
58 -> 59 ;
60 [label="X[7] <= 0.5\ngini = 0.32\nsamples = 3\nvalue = [1, 4]"] ;
58 -> 60 ;
61 [label="gini = 0.0\nsamples = 2\nvalue = [0, 4]"] ;
60 -> 61 ;
62 [label="gini = 0.0\nsamples = 1\nvalue = [1, 0]"] ;
60 -> 62 ;
63 [label="gini = 0.0\nsamples = 3\nvalue = [4, 0]"] ;
57 -> 63 ;
64 [label="X[14] <= 0.5\ngini = 0.4628\nsamples = 9\nvalue = [7, 4]"] ;
30 -> 64 ;
65 [label="X[40] <= 0.5\ngini = 0.2449\nsamples = 6\nvalue = [6, 1]"] ;
64 -> 65 ;
66 [label="X[34] <= 0.5\ngini = 0.4444\nsamples = 3\nvalue = [2, 1]"] ;
65 -> 66 ;
67 [label="gini = 0.0\nsamples = 1\nvalue = [0, 1]"] ;
66 -> 67 ;
68 [label="gini = 0.0\nsamples = 2\nvalue = [2, 0]"] ;
66 -> 68 ;
69 [label="gini = 0.0\nsamples = 3\nvalue = [4, 0]"] ;
65 -> 69 ;
70 [label="X[30] <= 0.5\ngini = 0.375\nsamples = 3\nvalue = [1, 3]"] ;
64 -> 70 ;
71 [label="gini = 0.0\nsamples = 2\nvalue = [0, 3]"] ;
70 -> 71 ;
72 [label="gini = 0.0\nsamples = 1\nvalue = [1, 0]"] ;
70 -> 72 ;
73 [label="gini = 0.0\nsamples = 1\nvalue = [0, 2]"] ;
29 -> 73 ;
74 [label="X[8] <= 0.5\ngini = 0.4444\nsamples = 3\nvalue = [4, 2]"] ;
28 -> 74 ;
75 [label="X[22] <= 0.5\ngini = 0.4444\nsamples = 2\nvalue = [1, 2]"] ;
74 -> 75 ;
76 [label="gini = 0.0\nsamples = 1\nvalue = [0, 2]"] ;
75 -> 76 ;
77 [label="gini = 0.0\nsamples = 1\nvalue = [1, 0]"] ;
75 -> 77 ;
78 [label="gini = 0.0\nsamples = 1\nvalue = [3, 0]"] ;
74 -> 78 ;
}